[ 1.81731281e-07  4.47351169e-07  1.78140934e-18  1.03109411e-03
 -7.45505346e-08 -3.59612932e-05  2.57445034e-04 -1.19927802e-06
 -1.19926870e-06  1.17018120e-03  1.17017888e-03  2.96246173e-04
  2.96254992e-04 -1.19922720e-06 -1.19926665e-06  1.77935883e-03
  1.77935848e-03  1.09505281e-03  1.09505327e-03  1.29914179e-03
  1.30470283e-03  1.83064351e-03  7.75957364e-04  5.11973281e-04
  5.11967519e-04  1.23434060e-03  1.23441825e-03  4.84873308e-03
  7.33332941e-04  7.33332359e-04  5.78001898e-04  5.78013598e-04
  1.12280657e-03  1.11212838e-03 -2.34827667e-06 -2.34823324e-06
 -2.55300574e-06]
[ 2.14863235e-07  4.20433594e-07  1.81068471e-18  1.44973141e-03
 -7.02342078e-08 -3.14447170e-05  2.36697335e-04 -1.13629278e-06
 -1.13628596e-06  1.20502082e-03  1.20501930e-03  2.98612402e-04
  2.98620726e-04 -1.13624344e-06 -1.13627743e-06  1.86682155e-03
  1.86682120e-03  1.34265679e-03  1.34265714e-03  1.34013966e-03
  1.34809397e-03  1.89757254e-03  8.50728771e-04  5.13625739e-04
  5.13620267e-04  1.24939729e-03  1.24948041e-03  2.66939960e-02
  7.57724629e-04  7.57723756e-04  5.91855496e-04  5.91865974e-04
  1.06790452e-03  1.05392199e-03 -4.17831870e-06 -4.17828687e-06
 -2.00001114e-06]
[ 3.78956372e-07  2.87118553e-07  1.95567707e-18  3.52311926e-03
 -4.88566911e-08 -9.07542017e-06  1.33939975e-04 -8.24344568e-07
 -8.24351446e-07  1.37757137e-03  1.37757359e-03  3.10331496e-04
  3.10337316e-04 -8.24302333e-07 -8.24310064e-07  2.29999865e-03
  2.29999842e-03  2.56896717e-03  2.56896764e-03  1.54318952e-03
  1.56299770e-03  2.22905469e-03  1.22104981e-03  5.21809328e-04
  5.21805370e-04  1.32396875e-03  1.32407807e-03  1.34887248e-01
  8.78529390e-04  8.78528517e-04  6.60468184e-04  6.60472026e-04
  7.95990927e-04  7.65643024e-04 -1.32419864e-05 -1.32420100e-05
  7.38811195e-07]
[ 4.85310466e-07  2.00712861e-07  2.04965140e-18  4.86695068e-03
 -3.50012499e-08  5.42285488e-06  6.73394679e-05 -6.22161338e-07
 -6.22175833e-07  1.48940762e-03  1.48941146e-03  3.17926781e-04
  3.17930593e-04 -6.22123594e-07 -6.22113760e-07  2.58075492e-03
  2.58075469e-03  3.36377905e-03  3.36377928e-03  1.67479319e-03
  1.70228351e-03  2.44389661e-03  1.46106817e-03  5.27112978e-04
  5.27110184e-04  1.37230195e-03  1.37242803e-03  2.05010846e-01
  9.56826843e-04  9.56825563e-04  7.04938662e-04  7.04938255e-04
  6.19754544e-04  5.78799983e-04 -1.91164472e-05 -1.91165072e-05
  2.51393203e-06]
[ 5.01079626e-07  1.92032132e-07  2.06597064e-18  5.10258321e-03
 -3.26031966e-08  7.82411735e-06  5.59085311e-05 -5.88571368e-07
 -5.88585465e-07  1.51905464e-03  1.51906046e-03  3.09210882e-04
  3.09214985e-04 -5.88533567e-07 -5.88520550e-07  2.62333290e-03
  2.62333243e-03  3.49194719e-03  3.49194743e-03  1.69458205e-03
  1.72331650e-03  2.47823633e-03  1.52080262e-03  5.28243545e-04
  5.28241857e-04  1.95409916e-03  1.95423095e-03  2.16448247e-01
  9.75419884e-04  9.75415809e-04  7.10183987e-04  7.10182590e-04
  5.91030053e-04  5.48168959e-04 -2.01046423e-05 -2.01047060e-05
  2.80311360e-06]
[ 5.81099926e-07  1.89339744e-07  1.41028359e-18  6.57499721e-03
 -3.98961930e-08  2.32974890e-05 -3.24336870e-05 -3.96045664e-07
 -3.96062205e-07  1.55207154e-03  1.55207922e-03  4.29293344e-04
  4.29294480e-04 -3.96031965e-07 -3.95973416e-07  3.01356521e-03
  3.01356497e-03  4.13519610e-03  4.13519610e-03  1.80909038e-03
  1.84478075e-03  5.80277592e-02  1.74821366e-03  5.26167511e-04
  5.26166928e-04  1.40531699e-03  1.40545645e-03  2.99319118e-01
  9.91239911e-04  9.91237932e-04  7.41573283e-04  7.41568685e-04
  5.52807760e-04  5.05818287e-04 -2.66500410e-05 -2.66501811e-05
  4.78999664e-06]
[ 5.77245316e-07  8.58599094e-08  1.13225351e-18  6.98467996e-03
 -3.89247887e-08  2.49053373e-05 -6.93873735e-05 -3.65473795e-07
 -3.65479991e-07  1.03314482e-02  1.03314603e-02  8.56380071e-03
  8.56380165e-03 -3.65464814e-07 -3.65390235e-07  3.47923464e-03
  3.47923441e-03  4.27671801e-03  4.27671801e-03  1.88195123e-03
  1.91912695e-03  7.99080729e-02  1.83434167e-03  5.19448251e-04
  5.19449299e-04  1.42201025e-03  1.42215460e-03  3.26229841e-01
  1.01194845e-03  1.01194554e-03  7.27587380e-04  7.27578881e-04
  4.22196346e-04  4.40402306e-04 -2.56445310e-05 -2.56446983e-05
  5.23022527e-06]
[ 6.11379846e-07 -3.47959656e-07  1.89833691e-18  7.60245556e-03
  3.89194810e-09  2.54491351e-05 -1.12664653e-04 -2.90865103e-07
 -2.90866183e-07  3.30015644e-02  3.30015719e-02  2.92507000e-02
  2.92507112e-02 -2.90842308e-07 -2.90776825e-07  4.43324307e-03
  4.43324354e-03  4.85864840e-03  4.85864840e-03  2.09218101e-03
  2.13379925e-03  2.59296205e-02  2.01362860e-03  5.15782740e-04
  5.15782100e-04  1.50583440e-03  1.50599855e-03  3.62366527e-01
  1.16943219e-03  1.16942881e-03  7.16882758e-04  7.16871349e-04
 -1.68924802e-04  5.32867853e-06 -2.10297876e-05 -2.10299204e-05
  5.74755859e-06]
[ 5.09233132e-07 -1.36573590e-07  9.39655979e-19  6.80919038e-03
 -3.32338530e-08  1.71887004e-05 -8.74569523e-05 -4.40081578e-07
 -4.40071744e-07  2.95984466e-02  2.95984596e-02  2.63783317e-02
  2.63783336e-02 -4.40080839e-07 -4.39998189e-07  4.22886387e-03
  4.22886293e-03  4.10679169e-03  4.10679076e-03  1.95822865e-03
  1.99353299e-03  9.18380395e-02  1.84315082e-03  5.05432428e-04
  5.05431904e-04  1.43851107e-03  1.43865100e-03  3.25866699e-01
  1.03716296e-03  1.03716087e-03  6.74164388e-04  6.74156006e-04
  1.73898996e-04  3.39110848e-04 -1.86848465e-05 -1.86850084e-05
  4.76356126e-06]
[ 5.33037905e-07 -1.58730813e-07  1.47509382e-18  6.66555716e-03
 -2.05042419e-08  1.69084888e-05 -6.59184880e-05 -4.33246555e-07
 -4.33244736e-07  2.66873930e-02  2.66874041e-02  2.35793162e-02
  2.35793237e-02 -4.33228934e-07 -4.33166917e-07  4.02657874e-03
  4.02657827e-03  4.19494882e-03  4.19494836e-03  1.95235154e-03
  1.98803353e-03  5.22358604e-02  1.82357989e-03  5.12152154e-04
  5.12150466e-04  1.44924654e-03  1.44939311e-03  3.13489944e-01
  1.06779882e-03  1.06779626e-03  6.90276269e-04  6.90268818e-04
  1.27108069e-04  2.66066927e-04 -1.89597522e-05 -1.89598813e-05
  4.59626472e-06]
[ 3.91499611e-07 -6.07898698e-07  6.01299714e-19  6.41734153e-03
 -4.25666542e-08  7.76510569e-06 -1.50367850e-05 -6.87104261e-07
 -6.87069814e-07  4.17896211e-02  4.17896435e-02  3.67154367e-02
  3.67154479e-02 -6.87108923e-07 -6.87011891e-07  4.44835238e-03
  4.44835192e-03  3.65824602e-03  3.65824578e-03  1.92930410e-03
  1.96060003e-03  1.14742726e-01  1.52468830e-02  5.03552030e-04
  5.03552321e-04  1.65742228e-03  1.65755244e-03  3.15097839e-01
  1.05937105e-03  1.05937046e-03  5.80368564e-04  5.80359134e-04
  9.60764010e-06  2.56322674e-04 -1.39606254e-05 -1.39607919e-05
  4.20608785e-06]
[ 1.73782098e-07 -3.28435181e-06  8.73051086e-19  7.00040488e-03
 -7.77845415e-08  1.03628772e-05  5.63968206e-04 -1.70667727e-06
 -1.70663350e-06  1.91510431e-02  1.91510357e-02  7.95606803e-03
  7.95606617e-03 -1.70670523e-06 -1.70657631e-06  1.94697303e-03
  1.94697245e-03  3.20645981e-03  3.20645934e-03  1.55486760e-03
  1.58423546e-03  1.07615285e-01  1.20147809e-01  6.00570056e-04
  6.00592641e-04  3.41255730e-03  3.41265928e-03  3.56503069e-01
  1.36025075e-03  1.36024412e-03  3.02046770e-04  3.02027969e-04
 -4.06509382e-04 -4.60558105e-04 -3.08385606e-05 -3.08387825e-05
  6.06375897e-06]
[ 2.55253553e-07 -2.58342629e-06  9.50012074e-19  6.89999806e-03
 -7.38144905e-08  1.35511218e-05  4.56769456e-04 -1.45769957e-06
 -1.45766705e-06  1.24513190e-02  1.24513190e-02  3.41773476e-03
  3.41772847e-03 -1.45771787e-06 -1.45760305e-06  2.00979644e-03
  2.00979644e-03  3.36305634e-03  3.36305634e-03  1.58173381e-03
  1.61221100e-03  1.00150004e-01  9.79305953e-02  5.88329392e-04
  5.88347088e-04  3.02932900e-03  3.02943960e-03  3.43524456e-01
  1.27896806e-03  1.27896364e-03  3.90753878e-04  3.90739762e-04
 -1.64973200e-04 -2.42619892e-04 -3.10569594e-05 -3.10571668e-05
  5.84035433e-06]
[ 1.55299944e-07 -1.88084755e-06 -1.32993272e-19  5.69528108e-03
 -1.01566087e-07 -9.99247277e-07  3.57743178e-04 -1.44718592e-06
 -1.44713408e-06  2.28793547e-02  2.28793565e-02  1.50524853e-02
  1.50524834e-02 -1.44721776e-06 -1.44708952e-06  2.65249773e-03
  2.65249726e-03  2.52369326e-03  2.52369279e-03  1.54671352e-03
  1.56935398e-03  1.70305923e-01  7.47716650e-02  5.49868681e-04
  5.49881021e-04  2.57965131e-03  2.57974118e-03  2.86948144e-01
  1.08394457e-03  1.08394190e-03  3.78581695e-04  3.78573051e-04
  1.73055159e-04  2.21241091e-04 -2.09169229e-05 -2.09171303e-05
  3.96550058e-06]
[ 2.42332419e-07 -9.29938381e-07 -1.83400211e-19  5.39428741e-03
 -1.02736493e-07  1.42171120e-06  2.24698626e-04 -1.15279431e-06
 -1.15275657e-06  1.34222005e-02  1.34222033e-02  8.51084758e-03
  8.51084478e-03 -1.15281830e-06 -1.15270655e-06  2.68450705e-03
  2.68450659e-03  2.58355867e-03  2.58355844e-03  1.55528460e-03
  1.57812866e-03  1.70712665e-01  4.58108783e-02  5.32278966e-04
  5.32284961e-04  2.06831028e-03  2.06840341e-03  2.61835814e-01
  9.54437070e-04  9.54436895e-04  4.86371049e-04  4.86366655e-04
  5.49844699e-04  5.64751390e-04 -2.06962104e-05 -2.06964123e-05
  3.46210982e-06]
[ 4.29472834e-07 -3.22088169e-07  3.97868498e-19  6.25940319e-03
 -7.92509525e-08  1.65511301e-05  9.05852066e-05 -7.45002353e-07
 -7.44995305e-07  2.33568065e-03  2.33568787e-03 -3.32831492e-04
 -3.32835596e-04 -7.45015086e-07 -7.44919078e-07  2.70562945e-03
  2.70562898e-03  3.44046182e-03  3.44046159e-03  1.66818965e-03
  1.69860490e-03  1.31938234e-01  2.50062980e-02  5.31896716e-04
  5.31898346e-04  1.75007968e-03  1.75019319e-03  2.94744074e-01
  9.58616612e-04  9.58615215e-04  6.24320353e-04  6.24312786e-04
  6.38770987e-04  5.83062647e-04 -2.66317675e-05 -2.66319621e-05
  4.56830458e-06]
[ 3.65167153e-07 -2.69835937e-07  8.74889702e-19  5.01162140e-03
 -7.49191287e-08  3.67990287e-06  1.54961250e-04 -8.91886998e-07
 -8.91878983e-07  2.22834805e-03  2.22835224e-03 -3.54333286e-04
 -3.54333199e-04 -8.91881541e-07 -8.91821287e-07  2.41182628e-03
  2.41182605e-03  2.89350376e-03  2.89350376e-03  1.57510024e-03
  1.59964291e-03  9.04862583e-02  2.31977683e-02  5.31521859e-04
  5.31523139e-04  1.69939303e-03  1.69950211e-03  2.25429341e-01
  9.29484144e-04  9.29484260e-04  6.03355991e-04  6.03354827e-04
  6.96609030e-04  6.46645494e-04 -2.10400958e-05 -2.10402268e-05
  2.89371110e-06]
[ 3.70380718e-07  3.15697207e-07  1.71263114e-18  3.57663399e-03
 -5.56244579e-08 -8.67795461e-06  1.26369501e-04 -8.26331757e-07
 -8.26335167e-07  1.35617598e-03  1.35617855e-03  3.43713938e-04
  3.43719323e-04 -8.26296059e-07 -8.26293615e-07  2.33588368e-03
  2.33588321e-03  2.52294960e-03  2.52294960e-03  1.53770612e-03
  1.55731151e-03  2.02263165e-02  1.22477952e-03  5.19520603e-04
  5.19516878e-04  1.31665100e-03  1.31675717e-03  1.39364138e-01
  8.60472559e-04  8.60470987e-04  6.55771291e-04  6.55775424e-04
  8.40051624e-04  8.11703270e-04 -1.34977017e-05 -1.34977399e-05
  8.15951353e-07]
[ 2.39900487e-07  4.00092489e-07  1.83280766e-18  1.76608714e-03
 -6.69724471e-08 -2.80316253e-05  2.21018665e-04 -1.08869608e-06
 -1.08869119e-06  1.23134849e-03  1.23134744e-03  3.00400512e-04
  3.00408428e-04 -1.08864788e-06 -1.08867744e-06  1.93291530e-03
  1.93291495e-03  1.52976625e-03  1.52976671e-03  1.37112092e-03
  1.38088374e-03  1.94814929e-03  9.07231937e-04  5.14874177e-04
  5.14868938e-04  1.26077526e-03  1.26086257e-03  4.32020351e-02
  7.76157132e-04  7.76156085e-04  6.02324493e-04  6.02333865e-04
  1.02641620e-03  1.00993668e-03 -5.56124633e-06 -5.56122222e-06
 -1.58212367e-06]
[ 1.78465115e-07  4.94492497e-07  1.29380498e-18  1.32303813e-03
 -8.66078764e-08 -3.31818774e-05  2.32852151e-04 -1.17601837e-06
 -1.17600450e-06  1.14126515e-03  1.14126422e-03  3.65993415e-04
  3.66000400e-04 -1.17598017e-06 -1.17599870e-06  1.89120788e-03
  1.89120742e-03  1.10784057e-03  1.10784080e-03  1.30565604e-03
  1.31183898e-03  3.89075577e-02  8.16101267e-04  5.07979421e-04
  5.07974066e-04  1.22581550e-03  1.22589059e-03  2.35503707e-02
  7.06753926e-04  7.06754101e-04  5.74347738e-04  5.74358855e-04
  1.18966680e-03  1.18166988e-03 -3.66933273e-06 -3.66932159e-06
 -2.15408613e-06]
[ 1.81731281e-07  4.47351169e-07  1.78140934e-18  1.03109411e-03
 -7.45505346e-08 -3.59612932e-05  2.57445034e-04 -1.19927802e-06
 -1.19926870e-06  1.17018120e-03  1.17017888e-03  2.96246173e-04
  2.96254992e-04 -1.19922720e-06 -1.19926665e-06  1.77935883e-03
  1.77935848e-03  1.09505281e-03  1.09505327e-03  1.29914179e-03
  1.30470283e-03  1.83064351e-03  7.75957364e-04  5.11973281e-04
  5.11967519e-04  1.23434060e-03  1.23441825e-03  4.84873308e-03
  7.33332941e-04  7.33332359e-04  5.78001898e-04  5.78013598e-04
  1.12280657e-03  1.11212838e-03 -2.34827667e-06 -2.34823324e-06
 -2.55300574e-06]
[ 1.81731281e-07  4.47351169e-07  1.78140934e-18  1.03109411e-03
 -7.45505346e-08 -3.59612932e-05  2.57445034e-04 -1.19927802e-06
 -1.19926870e-06  1.17018120e-03  1.17017888e-03  2.96246173e-04
  2.96254992e-04 -1.19922720e-06 -1.19926665e-06  1.77935883e-03
  1.77935848e-03  1.09505281e-03  1.09505327e-03  1.29914179e-03
  1.30470283e-03  1.83064351e-03  7.75957364e-04  5.11973281e-04
  5.11967519e-04  1.23434060e-03  1.23441825e-03  4.84873308e-03
  7.33332941e-04  7.33332359e-04  5.78001898e-04  5.78013598e-04
  1.12280657e-03  1.11212838e-03 -2.34827667e-06 -2.34823324e-06
 -2.55300574e-06]
[ 1.81731281e-07  4.47351169e-07  1.78140934e-18  1.03109411e-03
 -7.45505346e-08 -3.59612932e-05  2.57445034e-04 -1.19927802e-06
 -1.19926870e-06  1.17018120e-03  1.17017888e-03  2.96246173e-04
  2.96254992e-04 -1.19922720e-06 -1.19926665e-06  1.77935883e-03
  1.77935848e-03  1.09505281e-03  1.09505327e-03  1.29914179e-03
  1.30470283e-03  1.83064351e-03  7.75957364e-04  5.11973281e-04
  5.11967519e-04  1.23434060e-03  1.23441825e-03  4.84873308e-03
  7.33332941e-04  7.33332359e-04  5.78001898e-04  5.78013598e-04
  1.12280657e-03  1.11212838e-03 -2.34827667e-06 -2.34823324e-06
 -2.55300574e-06]
[ 1.81731281e-07  4.47351169e-07  1.78140934e-18  1.03109411e-03
 -7.45505346e-08 -3.59612932e-05  2.57445034e-04 -1.19927802e-06
 -1.19926870e-06  1.17018120e-03  1.17017888e-03  2.96246173e-04
  2.96254992e-04 -1.19922720e-06 -1.19926665e-06  1.77935883e-03
  1.77935848e-03  1.09505281e-03  1.09505327e-03  1.29914179e-03
  1.30470283e-03  1.83064351e-03  7.75957364e-04  5.11973281e-04
  5.11967519e-04  1.23434060e-03  1.23441825e-03  4.84873308e-03
  7.33332941e-04  7.33332359e-04  5.78001898e-04  5.78013598e-04
  1.12280657e-03  1.11212838e-03 -2.34827667e-06 -2.34823324e-06
 -2.55300574e-06]
[ 1.81731281e-07  4.47351169e-07  1.78140934e-18  1.03109411e-03
 -7.45505346e-08 -3.59612932e-05  2.57445034e-04 -1.19927802e-06
 -1.19926870e-06  1.17018120e-03  1.17017888e-03  2.96246173e-04
  2.96254992e-04 -1.19922720e-06 -1.19926665e-06  1.77935883e-03
  1.77935848e-03  1.09505281e-03  1.09505327e-03  1.29914179e-03
  1.30470283e-03  1.83064351e-03  7.75957364e-04  5.11973281e-04
  5.11967519e-04  1.23434060e-03  1.23441825e-03  4.84873308e-03
  7.33332941e-04  7.33332359e-04  5.78001898e-04  5.78013598e-04
  1.12280657e-03  1.11212838e-03 -2.34827667e-06 -2.34823324e-06
 -2.55300574e-06]
[ 1.81731281e-07  4.47351169e-07  1.78140934e-18  1.03109411e-03
 -7.45505346e-08 -3.59612932e-05  2.57445034e-04 -1.19927802e-06
 -1.19926870e-06  1.17018120e-03  1.17017888e-03  2.96246173e-04
  2.96254992e-04 -1.19922720e-06 -1.19926665e-06  1.77935883e-03
  1.77935848e-03  1.09505281e-03  1.09505327e-03  1.29914179e-03
  1.30470283e-03  1.83064351e-03  7.75957364e-04  5.11973281e-04
  5.11967519e-04  1.23434060e-03  1.23441825e-03  4.84873308e-03
  7.33332941e-04  7.33332359e-04  5.78001898e-04  5.78013598e-04
  1.12280657e-03  1.11212838e-03 -2.34827667e-06 -2.34823324e-06
 -2.55300574e-06]
[ 1.81731281e-07  4.47351169e-07  1.78140934e-18  1.03109411e-03
 -7.45505346e-08 -3.59612932e-05  2.57445034e-04 -1.19927802e-06
 -1.19926870e-06  1.17018120e-03  1.17017888e-03  2.96246173e-04
  2.96254992e-04 -1.19922720e-06 -1.19926665e-06  1.77935883e-03
  1.77935848e-03  1.09505281e-03  1.09505327e-03  1.29914179e-03
  1.30470283e-03  1.83064351e-03  7.75957364e-04  5.11973281e-04
  5.11967519e-04  1.23434060e-03  1.23441825e-03  4.84873308e-03
  7.33332941e-04  7.33332359e-04  5.78001898e-04  5.78013598e-04
  1.12280657e-03  1.11212838e-03 -2.34827667e-06 -2.34823324e-06
 -2.55300574e-06]
[ 1.81731281e-07  4.47351169e-07  1.78140934e-18  1.03109411e-03
 -7.45505346e-08 -3.59612932e-05  2.57445034e-04 -1.19927802e-06
 -1.19926870e-06  1.17018120e-03  1.17017888e-03  2.96246173e-04
  2.96254992e-04 -1.19922720e-06 -1.19926665e-06  1.77935883e-03
  1.77935848e-03  1.09505281e-03  1.09505327e-03  1.29914179e-03
  1.30470283e-03  1.83064351e-03  7.75957364e-04  5.11973281e-04
  5.11967519e-04  1.23434060e-03  1.23441825e-03  4.84873308e-03
  7.33332941e-04  7.33332359e-04  5.78001898e-04  5.78013598e-04
  1.12280657e-03  1.11212838e-03 -2.34827667e-06 -2.34823324e-06
 -2.55300574e-06]
[ 1.81731281e-07  4.47351169e-07  1.78140934e-18  1.03109411e-03
 -7.45505346e-08 -3.59612932e-05  2.57445034e-04 -1.19927802e-06
 -1.19926870e-06  1.17018120e-03  1.17017888e-03  2.96246173e-04
  2.96254992e-04 -1.19922720e-06 -1.19926665e-06  1.77935883e-03
  1.77935848e-03  1.09505281e-03  1.09505327e-03  1.29914179e-03
  1.30470283e-03  1.83064351e-03  7.75957364e-04  5.11973281e-04
  5.11967519e-04  1.23434060e-03  1.23441825e-03  4.84873308e-03
  7.33332941e-04  7.33332359e-04  5.78001898e-04  5.78013598e-04
  1.12280657e-03  1.11212838e-03 -2.34827667e-06 -2.34823324e-06
 -2.55300574e-06]
[ 1.81731281e-07  4.47351169e-07  1.78140934e-18  1.03109411e-03
 -7.45505346e-08 -3.59612932e-05  2.57445034e-04 -1.19927802e-06
 -1.19926870e-06  1.17018120e-03  1.17017888e-03  2.96246173e-04
  2.96254992e-04 -1.19922720e-06 -1.19926665e-06  1.77935883e-03
  1.77935848e-03  1.09505281e-03  1.09505327e-03  1.29914179e-03
  1.30470283e-03  1.83064351e-03  7.75957364e-04  5.11973281e-04
  5.11967519e-04  1.23434060e-03  1.23441825e-03  4.84873308e-03
  7.33332941e-04  7.33332359e-04  5.78001898e-04  5.78013598e-04
  1.12280657e-03  1.11212838e-03 -2.34827667e-06 -2.34823324e-06
 -2.55300574e-06]
[ 1.88751343e-07  3.74484472e-07  1.79285235e-18  1.25257031e-03
 -6.94310671e-08 -3.48842550e-05  2.41056929e-04 -1.17552452e-06
 -1.17551303e-06  5.62842144e-03  5.62842004e-03  4.39108210e-03
  4.39109234e-03 -1.17547427e-06 -1.17550974e-06  2.00277497e-03
  2.00277474e-03  1.22261385e-03  1.22261432e-03  1.34395994e-03
  1.35066477e-03  1.88800774e-03  8.25636904e-04  5.10161335e-04
  5.10155689e-04  1.24895677e-03  1.24903803e-03  1.81733873e-02
  7.57602626e-04  7.57601927e-04  5.75357873e-04  5.75368409e-04
  1.02359464e-03  1.04430201e-03 -1.88849253e-06 -1.88845388e-06
 -2.31545778e-06]
[ 2.07251873e-07  3.90520967e-07  1.80677566e-18  1.42491690e-03
 -6.89658961e-08 -3.24177781e-05  2.35018641e-04 -1.14516843e-06
 -1.14515967e-06  3.58909275e-03  3.58909112e-03  2.49853334e-03
  2.49854242e-03 -1.14511897e-06 -1.14515274e-06  1.95684214e-03
  1.95684191e-03  1.32613606e-03  1.32613641e-03  1.35013973e-03
  1.35788636e-03  1.90540520e-03  8.51736986e-04  5.12084051e-04
  5.12078463e-04  1.25207903e-03  1.25216215e-03  2.63491273e-02
  7.62387062e-04  7.62386422e-04  5.85674425e-04  5.85684669e-04
  1.03344838e-03  1.03746925e-03 -3.30240437e-06 -3.30237117e-06
 -2.06235336e-06]
[ 3.75738409e-07  5.06748279e-07  1.90740798e-18  3.30793532e-03
 -5.29274189e-08  2.05356118e-05  1.39683689e-04 -4.16416583e-07
 -4.16413570e-07  1.47104217e-03  1.47104333e-03  2.47505901e-04
  2.47511227e-04 -4.16360308e-07 -4.16376793e-07  2.60176696e-03
  2.60176649e-03  2.46562553e-03  2.46562576e-03  1.09089278e-02
  1.09272487e-02  2.20762845e-03  1.17154035e-03  5.15185995e-04
  5.15180989e-04  1.30741578e-03  1.30751927e-03  1.22985832e-01
  8.66342103e-04  8.66341172e-04  7.03414611e-04  7.03420257e-04
  2.98192352e-03  2.97481730e-03 -3.41615487e-06 -3.41618738e-06
  2.69512293e-06]
[ 3.92511936e-07  7.20675644e-08  1.10546340e-18  5.14208619e-03
 -3.78899045e-08  3.55073607e-05 -1.37009774e-05 -1.65229380e-07
 -1.65197434e-07  3.74364592e-02  3.74364704e-02  3.34502123e-02
  3.34502235e-02 -1.65199140e-07 -1.65152073e-07  4.57579270e-03
  4.57579223e-03  3.24717350e-03  3.24717374e-03  1.31298872e-02
  1.31558180e-02  6.76136240e-02  1.55766727e-03  4.90526203e-04
  4.90521430e-04  1.39199779e-03  1.39211514e-03  2.38926023e-01
  9.88702988e-04  9.88703570e-04  6.70253066e-04  6.70248410e-04
  2.79382057e-03  3.05312080e-03  1.82035865e-06  1.82023928e-06
  5.14848898e-06]
[ 4.78237780e-07 -8.67046879e-08  1.97851470e-18  6.14095712e-03
  1.30315598e-08  9.87287203e-05 -8.84342007e-05  7.88640705e-07
  7.88688908e-07  6.55018315e-02  6.55018315e-02  5.87419532e-02
  5.87419569e-02  7.88711759e-07  7.88735974e-07  6.45094318e-03
  6.45094179e-03  4.14186576e-03  4.14186670e-03  3.10414582e-02
  3.10736857e-02  3.00187664e-03  1.79941626e-03  4.75900364e-04
  4.75894107e-04  1.48619583e-03  1.48633553e-03  2.94725329e-01
  1.19485054e-03  1.19484984e-03  7.58519978e-04  7.58508570e-04
  6.09373720e-03  6.58344384e-03  2.31236118e-05  2.31234881e-05
  1.03100429e-05]
[ 5.11460598e-07 -3.42039698e-07  2.07461488e-18  6.57513924e-03
  1.45950807e-08  5.13988671e-05 -8.98744620e-05  1.18441562e-07
  1.18467483e-07  5.58071584e-02  5.58071658e-02  5.00545613e-02
  5.00545725e-02  1.18488970e-07  1.18528646e-07  5.56564238e-03
  5.56564191e-03  4.36494593e-03  4.36494639e-03  1.49154309e-02
  1.49508500e-02  3.00183985e-03  1.87423336e-03  4.93302417e-04
  4.93297761e-04  1.50265230e-03  1.50280446e-03  3.14738899e-01
  1.19512575e-03  1.19512249e-03  7.08341599e-04  7.08330132e-04
  2.48237769e-03  2.86047254e-03  2.90002617e-06  2.89991499e-06
  7.15432498e-06]
[ 5.23904248e-07 -2.28699491e-07  2.04113496e-18  6.79954374e-03
  2.06368185e-08  9.00956657e-05 -1.18449185e-04  6.70416739e-07
  6.70457666e-07  6.53441995e-02  6.53442070e-02  5.86310141e-02
  5.86310290e-02  6.70481086e-07  6.70513373e-07  6.41086372e-03
  6.41086232e-03  4.51968051e-03  4.51968098e-03  2.64650527e-02
  2.65011825e-02  3.09998309e-03  1.92216097e-03  4.81450319e-04
  4.81446827e-04  1.51400163e-03  1.51415193e-03  3.29361379e-01
  1.23264757e-03  1.23264384e-03  7.55918620e-04  7.55906105e-04
  4.94325673e-03  5.41594159e-03  1.58019284e-05  1.58018029e-05
  1.00743964e-05]
[ 4.41533530e-07 -7.80336393e-07  2.09028748e-18  6.32355362e-03
  2.29432615e-08  1.27246312e-06 -8.67637573e-05 -5.47838795e-07
 -5.47809520e-07  6.88135624e-02  6.88135773e-02  6.22884929e-02
  6.22885078e-02 -5.47806110e-07 -5.47760521e-07  5.56641631e-03
  5.56641584e-03  4.17334773e-03  4.17334866e-03  2.16752500e-03
  2.20149034e-03  3.00910999e-03  1.87444151e-03  4.92204330e-04
  4.92200896e-04  1.52535364e-03  1.52551010e-03  3.07774395e-01
  1.21373008e-03  1.21372519e-03  6.02182641e-04  6.02170243e-04
 -6.33342890e-04 -1.84266944e-04 -3.86975671e-06 -3.86983811e-06
  3.60537524e-06]
[ 3.65372017e-08 -1.62998776e-06  1.74664418e-18  3.74002708e-03
  4.87252905e-08 -3.34317519e-05 -6.86685962e-05 -8.66043194e-07
 -8.65927177e-07  1.55420840e-01  1.55420840e-01  1.42243385e-01
  1.42243415e-01 -8.65993400e-07 -8.65960544e-07  8.69969837e-03
  8.69969837e-03  2.57215276e-03  2.57215393e-03  7.90863670e-03
  7.92515464e-03  7.72025762e-03  1.60275074e-03  4.25452570e-04
  4.25443868e-04  1.55479182e-03  1.55492011e-03  2.07545742e-01
  1.27999391e-03  1.27999322e-03  3.49680835e-04  3.49667622e-04
 -3.77825461e-04  7.52500899e-04  4.05720493e-05  4.05720493e-05
  4.42914597e-07]
[-6.97269797e-09 -8.16292129e-07  1.58289737e-18  2.71905586e-03
  3.92029378e-08  9.28791851e-05 -5.23010967e-05  8.97657969e-07
  8.97817813e-07  1.67189360e-01  1.67189345e-01  1.52428284e-01
  1.52428329e-01  8.97766540e-07  8.97759378e-07  1.04600880e-02
  1.04600890e-02  2.08514603e-03  2.08514789e-03  4.92115431e-02
  4.92209047e-02  2.98288977e-03  1.39902404e-03  3.89772293e-04
  3.89759196e-04  1.49867695e-03  1.49877800e-03  1.55389041e-01
  1.25663856e-03  1.25664135e-03  5.12576837e-04  5.12563740e-04
  9.06617660e-03  1.03835613e-02  8.78248902e-05  8.78248611e-05
  8.81963751e-06]
[-1.50268562e-07 -1.05748563e-06  1.30871864e-18  1.98367285e-03
  4.94810095e-08  1.03475206e-04 -6.98668300e-05  1.11063275e-06
  1.11083693e-06  2.05182880e-01  2.05182880e-01  1.87393874e-01
  1.87393889e-01  1.11075337e-06  1.11074826e-06  1.21613340e-02
  1.21613340e-02  1.59380003e-03  1.59380189e-03  5.81102483e-02
  5.81137836e-02  1.45157613e-02  1.34016818e-03  3.56909237e-04
  3.56891833e-04  1.51497417e-03  1.51506579e-03  1.32574201e-01
  1.29783060e-03  1.29783456e-03  4.45666257e-04  4.45652520e-04
  1.06132738e-02  1.22414995e-02  1.11547393e-04  1.11547371e-04
  9.47759509e-06]
[ 2.88662079e-07 -3.04743423e-07  1.75965966e-18  5.19895507e-03
  3.96524555e-08  1.59406933e-04 -1.34930277e-04  1.74868126e-06
  1.74880381e-06  1.30797714e-01  1.30797729e-01  1.18549459e-01
  1.18549481e-01  1.74879460e-06  1.74880358e-06  9.82800219e-03
  9.82800033e-03  3.60192917e-03  3.60193104e-03  5.77657521e-02
  5.77900708e-02  3.20962095e-03  1.74825382e-03  4.16533439e-04
  4.16522322e-04  1.52491510e-03  1.52503722e-03  2.69574672e-01
  1.30750146e-03  1.30750053e-03  7.22430006e-04  7.22413068e-04
  1.12753818e-02  1.23188300e-02  7.32290646e-05  7.32289263e-05
  1.45796203e-05]
[ 1.75579359e-07 -1.90850005e-06  1.95014033e-18  5.71007468e-03
  7.59512275e-08 -2.18678542e-05 -1.72557426e-04 -6.87567365e-07
 -6.87460215e-07  1.62710637e-01  1.62710637e-01  1.48849070e-01
  1.48849115e-01 -6.87526381e-07 -6.87463285e-07  9.30716097e-03
  9.30716190e-03  3.74634285e-03  3.74634401e-03  5.90015249e-03
  5.92793105e-03  3.38000525e-03  1.97507394e-03  4.30937595e-04
  4.30929678e-04  1.64086185e-03  1.64102111e-03  3.12913001e-01
  1.41850684e-03  1.41850277e-03  3.88552697e-04  3.88533284e-04
 -1.27765711e-03 -1.15328236e-04  3.21423868e-05  3.21423504e-05
  2.41999851e-06]
[ 6.24175129e-07 -2.26039958e-07  2.16119050e-18  7.56064430e-03
  1.51766386e-08  6.30019204e-05 -1.19493954e-04  2.50671860e-07
  2.50679705e-07  4.05567437e-02  4.05567586e-02  3.59416641e-02
  3.59416641e-02  2.50713811e-07  2.50761445e-07  5.12164738e-03
  5.12164738e-03  4.95700026e-03  4.95700072e-03  1.38862496e-02
  1.39277512e-02  3.08218086e-03  2.01655878e-03  5.07104967e-04
  5.07101533e-04  1.51613355e-03  1.51629210e-03  3.60140085e-01
  1.21328840e-03  1.21328630e-03  7.69790029e-04  7.69777456e-04
  2.35483656e-03  2.60842079e-03 -7.32532953e-06 -7.32547142e-06
  8.39628956e-06]
[ 4.85703254e-07 -5.30368027e-07  1.51362637e-18  7.15121627e-03
  1.42611967e-08  5.24016032e-05 -1.51319779e-04  1.48702725e-07
  1.48743993e-07  7.31722489e-02  7.31722638e-02  6.61576539e-02
  6.61576763e-02  1.48736149e-07  1.48805043e-07  6.44171331e-03
  6.44171191e-03  4.50836495e-03  4.50836495e-03  1.51400650e-02
  1.51770823e-02  4.58270684e-02  2.00280128e-03  4.79070033e-04
  4.79067268e-04  1.52739580e-03  1.52754842e-03  3.55703980e-01
  1.22297509e-03  1.22297788e-03  6.73585688e-04  6.73572416e-04
  2.27699941e-03  2.78620841e-03  6.01664988e-06  6.01649663e-06
  7.73989086e-06]
[ 4.80752419e-07 -4.91200069e-07  1.77676286e-18  6.86659198e-03
  2.02079207e-08  6.08655864e-05 -1.34579750e-04  2.76318815e-07
  2.76364858e-07  7.44271576e-02  7.44271874e-02  6.72065392e-02
  6.72065765e-02  2.76367132e-07  2.76419428e-07  6.52751373e-03
  6.52751420e-03  4.44108667e-03  4.44108760e-03  1.85634494e-02
  1.85993239e-02  2.41955649e-02  1.95766566e-03  4.78108559e-04
  4.78104630e-04  1.52683817e-03  1.52699044e-03  3.39064062e-01
  1.23503397e-03  1.23503327e-03  6.87529100e-04  6.87513733e-04
  3.02285212e-03  3.54828476e-03  1.09238426e-05  1.09237071e-05
  8.16043757e-06]
[ 4.78857487e-07 -9.59510999e-07  2.13487954e-18  7.08941417e-03
  3.71249556e-08  6.62649109e-06 -1.36714079e-04 -4.53820292e-07
 -4.53789312e-07  7.87171498e-02  7.87171721e-02  7.13653341e-02
  7.13653713e-02 -4.53790506e-07 -4.53729740e-07  6.11902401e-03
  6.11902447e-03  4.61871410e-03  4.61871456e-03  2.29378953e-03
  2.33185478e-03  3.18021677e-03  2.03366159e-03  4.89274214e-04
  4.89272177e-04  1.56764034e-03  1.56780775e-03  3.51656020e-01
  1.28353713e-03  1.28353783e-03  6.05422654e-04  6.05409383e-04
 -8.89290008e-04 -3.72826238e-04 -4.05292985e-06 -4.05302853e-06
  4.49511936e-06]
[ 5.64556103e-07 -4.68212988e-07  1.92975012e-18  7.27087120e-03
  8.81340867e-09  1.89342536e-05 -1.07264408e-04 -3.59911837e-07
 -3.59907062e-07  4.30753492e-02  4.30753678e-02  3.85477766e-02
  3.85477841e-02 -3.59885291e-07 -3.59826799e-07  4.76035289e-03
  4.76035243e-03  4.67480812e-03  4.67480905e-03  2.11506756e-03
  2.15464085e-03  2.12762393e-02  1.97892613e-03  5.09009813e-04
  5.09010162e-04  1.51141942e-03  1.51158159e-03  3.48647445e-01
  1.18142623e-03  1.18142506e-03  6.84903818e-04  6.84893981e-04
 -2.98180152e-04 -4.65996563e-05 -1.63279547e-05 -1.63280765e-05
  5.18281786e-06]
[ 5.91069124e-07 -4.87654574e-08  1.65662956e-18  6.96350075e-03
 -2.01605843e-08  2.35600892e-05 -6.39657665e-05 -3.58042826e-07
 -3.58051693e-07  1.54712480e-02  1.54712610e-02  1.31819556e-02
  1.31819574e-02 -3.58022703e-07 -3.57964268e-07  3.62463202e-03
  3.62463156e-03  4.42721602e-03  4.42721602e-03  1.92942563e-03
  1.96743314e-03  4.12616767e-02  1.85468316e-03  5.21663052e-04
  5.21662878e-04  1.44873350e-03  1.44888274e-03  3.23528737e-01
  1.06924865e-03  1.06924819e-03  7.29364867e-04  7.29357824e-04
  2.34796084e-04  2.85920163e-04 -2.38693374e-05 -2.38694793e-05
  5.12536690e-06]
[ 5.43839519e-07 -2.96012331e-07  1.22854188e-18  7.28897983e-03
 -1.59436020e-08  2.04378339e-05 -1.14750437e-04 -3.72688703e-07
 -3.72677221e-07  3.68310660e-02  3.68310735e-02  3.29524390e-02
  3.29524428e-02 -3.72678983e-07 -3.72598606e-07  4.58877720e-03
  4.58877673e-03  4.46743798e-03  4.46743798e-03  2.05391971e-03
  2.09230720e-03  7.28627145e-02  1.95136690e-03  5.05644071e-04
  5.05642383e-04  1.47630810e-03  1.47646095e-03  3.51968348e-01
  1.10592716e-03  1.10592775e-03  6.80807920e-04  6.80798141e-04
 -5.64615475e-05  1.55868183e-04 -1.84545697e-05 -1.84547316e-05
  5.30171246e-06]
[ 5.15385011e-07 -2.53085943e-07  6.77463817e-19  7.34921265e-03
 -3.05303338e-08  2.01240182e-05 -1.31077250e-04 -3.90228820e-07
 -3.90211312e-07  3.86730246e-02  3.86730507e-02  3.47741507e-02
  3.47741619e-02 -3.90232401e-07 -3.90131049e-07  4.73238155e-03
  4.73238202e-03  4.32738103e-03  4.32738103e-03  2.04563444e-03
  2.08317442e-03  1.13231719e-01  1.95336901e-03  4.99128189e-04
  4.99126501e-04  1.46058109e-03  1.46072754e-03  3.59644115e-01
  1.06679031e-03  1.06678973e-03  6.64034684e-04  6.64023100e-04
  2.02660449e-05  2.51693535e-04 -1.81572723e-05 -1.81574615e-05
  5.37226470e-06]
[ 3.47631385e-07 -3.08389303e-07 -1.70895721e-19  6.23412849e-03
 -5.35345812e-08  2.50784069e-06 -1.11621222e-04 -6.25412781e-07
 -6.25363725e-07  5.55361733e-02  5.55361882e-02  5.05756252e-02
  5.05756252e-02 -6.25429834e-07 -6.25313078e-07  5.25466492e-03
  5.25466492e-03  3.41712660e-03  3.41712614e-03  1.99237233e-03
  2.02151109e-03  1.68160513e-01  1.77521654e-03  4.76773217e-04
  4.76770510e-04  1.41772558e-03  1.41784945e-03  3.13391328e-01
  9.80659621e-04  9.80660319e-04  5.69085474e-04  5.69076277e-04
  5.35199651e-05  4.28286556e-04 -7.87052159e-06 -7.87071167e-06
  3.70797443e-06]
[ 4.12779116e-07 -1.22285371e-07 -3.07500050e-19  6.73835259e-03
 -6.32391846e-08  1.21665507e-05 -1.22349680e-04 -5.25346422e-07
 -5.25309815e-07  4.08301093e-02  4.08301279e-02  3.70232500e-02
  3.70232500e-02 -5.25369217e-07 -5.25242001e-07  4.79089655e-03
  4.79089562e-03  3.66842304e-03  3.66842281e-03  1.95697509e-03
  1.98902097e-03  1.81673840e-01  1.82731613e-03  4.85797005e-04
  4.85796132e-04  1.40685681e-03  1.40698894e-03  3.35103512e-01
  9.56436503e-04  9.56438249e-04  6.14001649e-04  6.13991171e-04
  2.58512970e-04  5.21200593e-04 -1.48281379e-05 -1.48283589e-05
  4.56135558e-06]
[ 3.90660631e-07 -1.68595875e-07  7.85263235e-21  6.29725819e-03
 -5.60322420e-08  7.00133751e-06 -9.62711638e-05 -5.82356222e-07
 -5.82322002e-07  4.30631861e-02  4.30632010e-02  3.90332267e-02
  3.90332341e-02 -5.82372195e-07 -5.82261578e-07  4.75298846e-03
  4.75298800e-03  3.51540511e-03  3.51540511e-03  1.94054190e-03
  1.97072327e-03  1.56231195e-01  1.76185102e-03  4.86231816e-04
  4.86230711e-04  1.40738045e-03  1.40750676e-03  3.10598612e-01
  9.66333260e-04  9.66332096e-04  6.03513792e-04  6.03507506e-04
  2.08989775e-04  4.88408201e-04 -1.21508965e-05 -1.21510830e-05
  3.94192102e-06]
[ 4.16637647e-07 -1.34602317e-07  3.06474863e-19  6.27155555e-03
 -5.09509732e-08  8.52184894e-06 -8.25829338e-05 -5.62667765e-07
 -5.62640139e-07  3.77389528e-02  3.77389640e-02  3.40578631e-02
  3.40578742e-02 -5.62675041e-07 -5.62576986e-07  4.50445153e-03
  4.50445106e-03  3.59735428e-03  3.59735428e-03  1.92298298e-03
  1.95377390e-03  1.34658113e-01  1.75203825e-03  4.92363353e-04
  4.92361316e-04  1.40950561e-03  1.40963460e-03  3.05109054e-01
  9.76490497e-04  9.76490963e-04  6.22433261e-04  6.22427033e-04
  2.35789688e-04  4.72561631e-04 -1.37341267e-05 -1.37343068e-05
  3.96656969e-06]
[ 4.49007132e-07 -1.53018505e-08 -1.95836251e-19  6.84741233e-03
 -6.54003003e-08  1.62414144e-05 -1.14190916e-04 -4.84436384e-07
 -4.84410180e-07  3.12796198e-02  3.12796384e-02  2.81877965e-02
  2.81877946e-02 -4.84459463e-07 -4.84336113e-07  4.42232098e-03
  4.42232052e-03  3.77032068e-03  3.77032021e-03  1.92194362e-03
  1.95507216e-03  1.74695984e-01  1.82723079e-03  4.92982916e-04
  4.92982450e-04  1.40001124e-03  1.40014268e-03  3.36333841e-01
  9.46470769e-04  9.46472399e-04  6.41600753e-04  6.41593011e-04
  3.75718868e-04  5.65193302e-04 -1.83742686e-05 -1.83744869e-05
  4.82148880e-06]
[ 4.17052718e-07 -2.24106884e-07 -6.46706347e-20  6.78428682e-03
 -5.22716377e-08  1.13362803e-05 -1.25959923e-04 -5.19463470e-07
 -5.19427545e-07  4.59469706e-02  4.59469780e-02  4.16814908e-02
  4.16814946e-02 -5.19482398e-07 -5.19361095e-07  4.97902650e-03
  4.97902650e-03  3.76852835e-03  3.76852811e-03  1.99858611e-03
  2.03125924e-03  1.63902462e-01  1.85288547e-03  4.85376077e-04
  4.85372846e-04  1.42527965e-03  1.42541016e-03  3.37858647e-01
  9.93092544e-04  9.93095222e-04  6.10495335e-04  6.10484858e-04
  1.21533405e-04  4.19428456e-04 -1.33711201e-05 -1.33713220e-05
  4.55261215e-06]
[ 5.21851007e-07 -6.01873467e-08  3.25975336e-20  7.59500824e-03
 -5.37689431e-08  2.50119447e-05 -1.45384402e-04 -3.60653360e-07
 -3.60635681e-07  2.94055566e-02  2.94055771e-02  2.63665207e-02
  2.63665207e-02 -3.60671720e-07 -3.60548711e-07  4.48307022e-03
  4.48307022e-03  4.26887814e-03  4.26887814e-03  1.99255371e-03
  2.03037309e-03  1.62095517e-01  1.96041865e-03  4.98883775e-04
  4.98882786e-04  1.43051043e-03  1.43064861e-03  3.73376518e-01
  9.99989454e-04  9.99987009e-04  6.75302988e-04  6.75291405e-04
  2.72474019e-04  4.39749623e-04 -2.22555755e-05 -2.22558047e-05
  5.82867915e-06]
[ 3.43093859e-07 -2.11134193e-07 -1.11814904e-18  6.81089796e-03
 -7.71889930e-08  8.14801751e-06 -1.59327290e-04 -5.77820458e-07
 -5.77768105e-07  5.50147407e-02  5.50147668e-02  5.02817109e-02
  5.02817146e-02 -5.77863318e-07 -5.77703759e-07  5.45547809e-03
  5.45547856e-03  3.44767212e-03  3.44767165e-03  2.00349302e-03
  2.03390932e-03  2.40267828e-01  1.85383041e-03  4.69322229e-04
  4.69322084e-04  1.40077248e-03  1.40088599e-03  3.50046307e-01
  9.28298687e-04  9.28301190e-04  5.63323963e-04  5.63311158e-04
  1.89736660e-04  5.66170085e-04 -1.06288880e-05 -1.06291463e-05
  4.50145035e-06]
[ 4.80606332e-07 -3.18693139e-07  7.22028172e-19  7.03582866e-03
 -2.79352825e-08  1.50839442e-05 -1.21172634e-04 -4.46936269e-07
 -4.46912452e-07  4.44438718e-02  4.44438830e-02  4.01007049e-02
  4.01007012e-02 -4.46936156e-07 -4.46840033e-07  4.89071850e-03
  4.89071850e-03  4.16013738e-03  4.16013692e-03  2.04822514e-03
  2.08396092e-03  1.07980020e-01  1.91228895e-03  4.95114538e-04
  4.95114014e-04  1.46066921e-03  1.46081741e-03  3.45106393e-01
  1.06950931e-03  1.06950733e-03  6.42543309e-04  6.42531668e-04
 -4.49815998e-05  2.31420272e-04 -1.49189927e-05 -1.49191656e-05
  4.88469959e-06]
[ 4.62446963e-07 -2.76189098e-08  1.11844848e-19  6.76121283e-03
 -5.81262469e-08  1.60458039e-05 -1.01608195e-04 -4.81013785e-07
 -4.80991332e-07  2.95905396e-02  2.95905527e-02  2.65645720e-02
  2.65645757e-02 -4.81028167e-07 -4.80919425e-07  4.30465350e-03
  4.30465303e-03  3.81890149e-03  3.81890126e-03  1.91813428e-03
  1.95146399e-03  1.51920944e-01  1.81529939e-03  4.96842258e-04
  4.96841327e-04  1.40603795e-03  1.40616496e-03  3.29022616e-01
  9.63843893e-04  9.63846454e-04  6.50785165e-04  6.50777365e-04
  3.49514477e-04  5.23810333e-04 -1.85213557e-05 -1.85215576e-05
  4.72070997e-06]
[ 6.84322799e-07  9.75450121e-09  1.75424039e-18  7.89896213e-03
 -1.38917216e-08  4.17978117e-05 -1.03018043e-04 -1.15978196e-07
 -1.15999228e-07  9.32508335e-03  9.32509545e-03  7.40868738e-03
  7.40868924e-03 -1.15961029e-07 -1.15895318e-07  3.63554200e-03
  3.63554130e-03  5.00042271e-03  5.00042224e-03  3.83415772e-03
  3.87770147e-03  3.89754362e-02  2.00612075e-03  5.28335629e-04
  5.28337026e-04  1.47252379e-03  1.47268409e-03  3.69497180e-01
  1.11065863e-03  1.11065619e-03  7.85062904e-04  7.85052194e-04
  6.27973874e-04  6.28983951e-04 -2.82199944e-05 -2.82201545e-05
  6.87782858e-06]
[ 6.60755518e-07  7.20471292e-08  1.91416811e-18  7.57801859e-03
 -6.10581452e-09  6.66586711e-05 -9.93956055e-05  2.51957772e-07
  2.51952883e-07  1.92368980e-02  1.92369092e-02  1.63589977e-02
  1.63589995e-02  2.51996653e-07  2.52048721e-07  4.27462999e-03
  4.27462952e-03  4.89667198e-03  4.89667151e-03  1.29936514e-02
  1.30353011e-02  2.26854309e-02  1.96566246e-03  5.17783745e-04
  5.17783570e-04  1.47547398e-03  1.47562963e-03  3.54473501e-01
  1.13659049e-03  1.13658933e-03  8.06972093e-04  8.06961907e-04
  2.56750127e-03  2.66299187e-03 -1.50009746e-05 -1.50011356e-05
  8.50581637e-06]
[ 5.28061378e-07 -7.32941942e-07  2.00550146e-18  7.31727667e-03
  2.40522624e-08  1.39016011e-05 -1.30861881e-04 -3.90097341e-07
 -3.90078412e-07  6.20287508e-02  6.20287657e-02  5.59991486e-02
  5.59991673e-02 -3.90069431e-07 -3.90006221e-07  5.51675819e-03
  5.51675865e-03  4.71586548e-03  4.71586548e-03  2.22218013e-03
  2.26168288e-03  1.48345064e-02  2.03251583e-03  4.98645415e-04
  4.98644193e-04  1.54482189e-03  1.54498802e-03  3.57996911e-01
  1.24031666e-03  1.24031585e-03  6.46248693e-04  6.46235363e-04
 -6.22174121e-04 -2.30492325e-04 -1.04312803e-05 -1.04313913e-05
  5.00709984e-06]
[ 4.22592251e-07 -9.73849637e-07  1.50924376e-18  7.00530782e-03
  2.28814372e-08  3.05011417e-06 -1.53923087e-04 -5.07606558e-07
 -5.07561253e-07  8.61635432e-02  8.61635655e-02  7.83783719e-02
  7.83783942e-02 -5.07588823e-07 -5.07507139e-07  6.46275328e-03
  6.46275328e-03  4.37026517e-03  4.37026564e-03  2.29808176e-03
  2.33419985e-03  4.78793941e-02  2.02130247e-03  4.78184898e-04
  4.78181930e-04  1.55292265e-03  1.55308307e-03  3.54443491e-01
  1.24529528e-03  1.24529237e-03  5.69687516e-04  5.69674885e-04
 -8.70212098e-04 -2.90965661e-04 -1.32152718e-06 -1.32164132e-06
  4.30689624e-06]
[ 5.20982610e-07 -4.60949821e-07  1.21704262e-18  7.36785913e-03
 -7.53573204e-09  1.76885260e-05 -1.33605761e-04 -3.87281489e-07
 -3.87261196e-07  4.90020104e-02  4.90020216e-02  4.41700332e-02
  4.41700444e-02 -3.87272735e-07 -3.87184173e-07  5.09122433e-03
  5.09122433e-03  4.50282125e-03  4.50282171e-03  2.12475983e-03
  2.16325186e-03  7.33679235e-02  1.99304731e-03  4.98532725e-04
  4.98532201e-04  1.49714691e-03  1.49729988e-03  3.60968113e-01
  1.14115374e-03  1.14115328e-03  6.55937067e-04  6.55926182e-04
 -2.57832347e-04  4.47174534e-05 -1.48873423e-05 -1.48875033e-05
  5.25533733e-06]
[ 3.77711785e-07 -1.81375924e-07  4.64429137e-19  5.77170495e-03
 -4.76904454e-08  2.07679477e-06 -5.88223920e-05 -6.38590620e-07
 -6.38560209e-07  4.17624079e-02  4.17624190e-02  3.77577543e-02
  3.77577543e-02 -6.38591587e-07 -6.38506265e-07  4.54171188e-03
  4.54171142e-03  3.36046075e-03  3.36046051e-03  1.90364360e-03
  1.93187012e-03  1.20268248e-01  1.67662464e-03  4.89935221e-04
  4.89933882e-04  1.40494644e-03  1.40507473e-03  2.79294163e-01
  9.74587572e-04  9.74587863e-04  6.01959648e-04  6.01952313e-04
  1.96734210e-04  4.65705700e-04 -1.02309095e-05 -1.02310587e-05
  3.25104520e-06]
[ 2.32257293e-07 -5.02283740e-07 -4.52854295e-19  4.95251082e-03
 -1.05909905e-07 -3.47760943e-06  1.48829888e-04 -1.06475920e-06
 -1.06471862e-06  1.86114069e-02  1.86114162e-02  1.45542035e-02
  1.45542035e-02 -1.06478410e-06 -1.06467587e-06  3.08039552e-03
  3.08039458e-03  2.37715198e-03  2.37715151e-03  1.57773716e-03
  1.59838283e-03  1.86471045e-01  2.99572777e-02  5.13120729e-04
  5.13123639e-04  1.78657018e-03  1.78666133e-03  2.39239484e-01
  8.75869533e-04  8.75870814e-04  5.07137389e-04  5.07132499e-04
  6.71783404e-04  7.50413805e-04 -1.60367308e-05 -1.60369200e-05
  2.69744396e-06]
[ 1.05321490e-07 -1.95089740e-07 -4.78465668e-19  3.42511386e-03
 -8.17085208e-08 -2.96883372e-05  1.80134812e-05 -1.06555217e-06
 -1.06548237e-06  6.14260957e-02  6.14261031e-02  5.62302358e-02
  5.62302470e-02 -1.06556183e-06 -1.06547600e-06  4.92313597e-03
  4.92313551e-03  1.71776861e-03  1.71776849e-03  1.74465240e-03
  1.75734865e-03  1.75435141e-01  1.28499838e-03  4.60905372e-04
  4.60900716e-04  1.32193509e-03  1.32202427e-03  1.69974536e-01
  8.23641429e-04  8.23645736e-04  4.59583185e-04  4.59581672e-04
  3.46799497e-04  7.90556427e-04  6.37266066e-06  6.37254197e-06
 -7.58184342e-08]
[ 5.49411254e-08 -1.84619182e-08 -9.70339314e-19  2.90251803e-03
 -1.04796484e-07 -3.37999409e-05  4.24055906e-05 -1.14935187e-06
 -1.14927877e-06  5.50331697e-02  5.50331771e-02  5.04793189e-02
  5.04793338e-02 -1.14937245e-06 -1.14927843e-06  4.60869912e-03
  4.60869865e-03  1.26844144e-03  1.26844121e-03  1.64061273e-03
  1.64954294e-03  2.08928376e-01  1.16640329e-03  4.57985356e-04
  4.57979360e-04  1.27643510e-03  1.27650483e-03  1.43342853e-01
  7.37502356e-04  7.37507944e-04  4.44358884e-04  4.44359903e-04
  6.10347313e-04  1.01572962e-03  6.58984800e-06  6.58972203e-06
 -6.76013087e-07]
[ 2.84817787e-08 -4.63338665e-07 -9.93043767e-19  3.52142099e-03
 -7.97015218e-08 -3.63279760e-05 -2.68628355e-05 -1.12468149e-06
 -1.12458474e-06  8.61284062e-02  8.61284211e-02  7.91143999e-02
  7.91144148e-02 -1.12470161e-06 -1.12459247e-06  5.98055357e-03
  5.98055404e-03  1.59863196e-03  1.59863196e-03  1.86132314e-03
  1.87285896e-03  2.11928740e-01  1.34683889e-03  4.41262673e-04
  4.41256940e-04  1.34378904e-03  1.34387286e-03  1.88256681e-01
  8.49804783e-04  8.49810720e-04  3.94109287e-04  3.94104223e-04
  4.63081524e-05  6.78880024e-04  1.38667256e-05  1.38665891e-05
 -2.42171836e-07]
[ 1.24437321e-07 -2.68881422e-07 -1.00775476e-18  4.26379591e-03
 -8.56943103e-08 -2.31970498e-05 -4.39341238e-05 -9.78569233e-07
 -9.78492039e-07  6.86517358e-02  6.86517432e-02  6.29668608e-02
  6.29668832e-02 -9.78597086e-07 -9.78478170e-07  5.44449454e-03
  5.44449454e-03  2.02526501e-03  2.02526455e-03  1.83911785e-03
  1.85520924e-03  2.17981249e-01  1.43751316e-03  4.53961839e-04
  4.53955989e-04  1.34113769e-03  1.34122814e-03  2.20579728e-01
  8.41100176e-04  8.41103087e-04  4.55888046e-04  4.55883215e-04
  2.43085495e-04  7.39785726e-04  4.97618839e-06  4.97602559e-06
  9.57810698e-07]
[ 1.96289605e-07 -4.35967763e-07 -1.58121923e-18  5.95144695e-03
 -8.13921588e-08 -8.77620550e-06 -1.54719804e-04 -7.76356842e-07
 -7.76274931e-07  7.98513442e-02  7.98513740e-02  7.33302981e-02
  7.33303055e-02 -7.76403851e-07 -7.76239119e-07  6.30938867e-03
  6.30938867e-03  2.80039711e-03  2.80039664e-03  2.03276705e-03
  2.05679447e-03  2.67969996e-01  1.74822530e-03  4.46985330e-04
  4.46982303e-04  1.39299512e-03  1.39309990e-03  3.17726403e-01
  9.09458729e-04  9.09466879e-04  4.68871644e-04  4.68863582e-04
 -1.31273409e-05  5.60003973e-04  1.11844065e-06  1.11820168e-06
  3.06700213e-06]
[ 8.54259028e-08 -6.68758901e-07  5.10477971e-20  5.56846801e-03
 -2.22369465e-08 -2.39446836e-05 -1.19687757e-04 -8.88042564e-07
 -8.87969179e-07  1.02872491e-01  1.02872506e-01  9.34246182e-02
  9.34246555e-02 -8.88066154e-07 -8.87951273e-07  6.69206446e-03
  6.69206353e-03  2.64040148e-03  2.64040148e-03  2.05444638e-03
  2.07505957e-03  1.45003378e-01  2.47491058e-03  4.56942595e-04
  4.56936687e-04  2.43475512e-02  2.43476592e-02  2.60944009e-01
  1.28331129e-03  1.28331373e-03  3.48055444e-04  3.48047150e-04
 -5.80177992e-04  1.45309954e-04  1.18398748e-05  1.18397747e-05
  1.35796381e-06]
[ 1.21438148e-08 -1.01766727e-06 -5.74257319e-19  4.09668218e-03
 -3.91442825e-08 -4.02111218e-05 -9.00282757e-05 -1.09716916e-06
 -1.09705866e-06  1.21363685e-01  1.21363699e-01  1.11466400e-01
  1.11466415e-01 -1.09718360e-06 -1.09707105e-06  7.46187149e-03
  7.46187149e-03  2.04092287e-03  2.04092334e-03  2.11858610e-03
  2.13328050e-03  1.82267085e-01  1.53940520e-03  4.26430954e-04
  4.26423852e-04  1.43249682e-03  1.43259997e-03  2.29464412e-01
  1.00851757e-03  1.00852083e-03  3.44961387e-04  3.44950386e-04
 -6.69533620e-04  2.16746819e-04  2.26915672e-05  2.26914508e-05
  7.15422175e-08]
[-8.25774293e-08 -1.49384186e-06  6.61538936e-19  2.78831390e-03
 -1.37135459e-09 -5.96865066e-05  1.51267159e-06 -1.33121591e-06
 -1.33109563e-06  1.41344324e-01  1.41344324e-01  1.29344061e-01
  1.29344091e-01 -1.33119534e-06 -1.33113895e-06  7.77851371e-03
  7.77851511e-03  1.63812423e-03  1.63812470e-03  2.13929848e-03
  2.14847480e-03  8.44292715e-02  5.78769902e-03  4.26138256e-04
  4.26130951e-04  1.53966574e-03  1.53976714e-03  1.60851538e-01
  1.11169298e-03  1.11169531e-03  2.77240586e-04  2.77231680e-04
 -1.11921050e-03 -9.21685714e-05  3.46497909e-05  3.46497764e-05
 -1.90496382e-06]
[-1.54790314e-07 -2.43050272e-06  9.49079324e-19  3.12266592e-03
  1.29361197e-08 -6.30068098e-05  1.03417711e-04 -1.57145291e-06
 -1.57131467e-06  1.57318294e-01  1.57318264e-01  1.42193377e-01
  1.42193422e-01 -1.57143472e-06 -1.57136833e-06  8.06593150e-03
  8.06593057e-03  1.70903653e-03  1.70903723e-03  2.19301367e-03
  2.20278371e-03  6.61377534e-02  2.99745761e-02  4.38764022e-04
  4.38759569e-04  1.99034391e-03  1.99044822e-03  1.87662393e-01
  1.26635144e-03  1.26635237e-03  1.78500632e-04  1.78487040e-04
 -1.62275333e-03 -5.10927290e-04  3.67139946e-05  3.67139801e-05
 -1.48136348e-06]
[ 1.65558149e-07 -1.53633414e-06  1.74486347e-18  4.93006827e-03
  4.50855779e-08 -3.33741591e-05 -1.01755111e-04 -9.07128424e-07
 -9.07036792e-07  1.34562537e-01  1.34562537e-01  1.23052619e-01
  1.23052672e-01 -9.07092272e-07 -9.07042363e-07  7.92284589e-03
  7.92284682e-03  3.23909172e-03  3.23909265e-03  2.36611068e-03
  2.38990178e-03  1.68123189e-02  1.77132559e-03  4.44940059e-04
  4.44933539e-04  1.56688923e-03  1.56703242e-03  2.62573034e-01
  1.28506636e-03  1.28506764e-03  4.03144339e-04  4.03130951e-04
 -1.45293085e-03 -4.99322778e-04  2.33952869e-05  2.33952633e-05
  9.53270046e-07]
[ 3.18594971e-07 -1.21339053e-06  1.70130807e-18  6.15735073e-03
  3.67389035e-08 -5.48838580e-06 -1.35519193e-04 -5.73944533e-07
 -5.73876036e-07  1.09189726e-01  1.09189749e-01  9.95675251e-02
  9.95675623e-02 -5.73912928e-07 -5.73849434e-07  7.25531392e-03
  7.25531392e-03  3.94441467e-03  3.94441606e-03  4.46879864e-03
  4.49995790e-03  2.74611469e-02  1.92649092e-03  4.62428055e-04
  4.62424505e-04  1.56542799e-03  1.56558619e-03  3.17306936e-01
  1.27896620e-03  1.27896597e-03  5.08517842e-04  5.08503523e-04
 -6.93414127e-04  6.66094711e-05  1.18291173e-05  1.18290318e-05
  3.40038696e-06]
[ 5.44361910e-07 -3.00529962e-07  2.03600333e-18  6.97369501e-03
  1.63403087e-08  6.45107357e-05 -1.11846399e-04  2.97703991e-07
  2.97728207e-07  5.56340590e-02  5.56340739e-02  4.98346947e-02
  4.98347096e-02  2.97752649e-07  2.97798238e-07  5.74085396e-03
  5.74085349e-03  4.58932249e-03  4.58932295e-03  1.75333582e-02
  1.75708663e-02  7.26310536e-03  1.94048625e-03  4.92843450e-04
  4.92839667e-04  1.51205808e-03  1.51221454e-03  3.35652143e-01
  1.21291599e-03  1.21291366e-03  7.34316884e-04  7.34304485e-04
  3.03932279e-03  3.41904047e-03  3.52300731e-06  3.52287793e-06
  8.30160570e-06]
[ 5.61848879e-07 -4.49463300e-07  1.77682056e-18  7.33455550e-03
  4.68089922e-09  1.95603316e-05 -1.13338261e-04 -3.56347186e-07
 -3.56340763e-07  4.28820215e-02  4.28820327e-02  3.84013206e-02
  3.84013318e-02 -3.56323937e-07 -3.56258852e-07  4.78216168e-03
  4.78216214e-03  4.66303155e-03  4.66303201e-03  2.11351016e-03
  2.15312932e-03  3.27694640e-02  1.98616600e-03  5.07775694e-04
  5.07776102e-04  1.50753767e-03  1.50769635e-03  3.52973372e-01
  1.17115234e-03  1.17114931e-03  6.83292048e-04  6.83280115e-04
 -2.71044904e-04 -1.97798945e-05 -1.66788323e-05 -1.66789650e-05
  5.27331440e-06]
[ 5.61808861e-07 -7.67771553e-08  2.06499395e-18  6.87598391e-03
  1.25236355e-08  8.99985025e-05 -1.03880739e-04  6.41533916e-07
  6.41561201e-07  5.09267598e-02  5.09267673e-02  4.53590937e-02
  4.53591011e-02  6.41595648e-07  6.41629867e-07  5.79580897e-03
  5.79580851e-03  4.57214424e-03  4.57214518e-03  2.48747300e-02
  2.49117315e-02  3.03885201e-03  1.90476654e-03  4.91404207e-04
  4.91399493e-04  1.49659964e-03  1.49675109e-03  3.27724010e-01
  1.20016560e-03  1.20016374e-03  7.82684656e-04  7.82673829e-04
  4.81086690e-03  5.17194532e-03  9.39314123e-06  9.39300935e-06
  9.99038457e-06]
[ 5.68050154e-07  6.28075441e-08  2.06265944e-18  6.63818652e-03
  3.08203596e-09  8.69198557e-05 -7.77371170e-05  5.76990260e-07
  5.77011065e-07  3.96010093e-02  3.96010205e-02  3.49532664e-02
  3.49532701e-02  5.77054038e-07  5.77079390e-07  5.25374804e-03
  5.25374757e-03  4.43733996e-03  4.43733996e-03  2.36605294e-02
  2.36965176e-02  2.94342358e-03  1.83788384e-03  4.97993431e-04
  4.97989065e-04  1.47219375e-03  1.47233892e-03  3.10900480e-01
  1.15736143e-03  1.15736248e-03  7.94145220e-04  7.94135965e-04
  4.76029096e-03  5.03637362e-03  5.72912495e-06  5.72899353e-06
  9.54595998e-06]
[ 5.71630380e-07  1.27429075e-07  1.86281963e-18  6.44047605e-03
 -1.71850374e-08  5.14296444e-05 -4.15550312e-05  4.00192448e-08
  4.00187901e-08  1.87268071e-02  1.87268164e-02  1.59797873e-02
  1.59797911e-02  4.00611953e-08  4.00956424e-08  3.98465944e-03
  3.98465851e-03  4.22961079e-03  4.22961079e-03  1.19714877e-02
  1.20067215e-02  2.07064655e-02  1.76321494e-03  5.14350540e-04
  5.14347979e-04  1.43572502e-03  1.43586728e-03  2.94849545e-01
  1.07134914e-03  1.07134716e-03  7.66035577e-04  7.66029989e-04
  2.50891503e-03  2.60801520e-03 -1.10181809e-05 -1.10183082e-05
  6.79045252e-06]
[ 5.54426606e-07 -2.62487561e-08  1.27298071e-18  6.82274252e-03
 -3.09478700e-08  2.09934769e-05 -6.75964402e-05 -3.99993041e-07
 -3.99994747e-07  1.80501863e-02  1.80502031e-02  1.56554431e-02
  1.56554468e-02 -3.99981104e-07 -3.99913233e-07  3.73732229e-03
  3.73732205e-03  4.22504311e-03  4.22504265e-03  1.91320048e-03
  1.94956292e-03  6.83247298e-02  1.82676513e-03  5.15753403e-04
  5.15752414e-04  1.43370091e-03  1.43384584e-03  3.19765747e-01
  1.03591266e-03  1.03591278e-03  7.09067157e-04  7.09060638e-04
  2.88570940e-04  3.64074484e-04 -2.24410906e-05 -2.24412397e-05
  4.91656419e-06]
[ 3.77852984e-07  1.20019507e-07 -6.17426221e-19  6.16750447e-03
 -8.31005948e-08  1.72249820e-05 -9.02934989e-05 -4.81310849e-07
 -4.81274924e-07  3.21836248e-02  3.21836323e-02  2.91079134e-02
  2.91079152e-02 -4.81336087e-07 -4.81213249e-07  4.45163157e-03
  4.45163110e-03  3.25955101e-03  3.25955031e-03  4.45206184e-03
  4.48045786e-03  2.01123297e-01  1.69632793e-03  4.84422693e-04
  4.84419958e-04  1.36093749e-03  1.36104855e-03  3.03537488e-01
  8.78207386e-04  8.78210412e-04  6.21296698e-04  6.21292973e-04
  1.12428633e-03  1.33590563e-03 -1.26548457e-05 -1.26550676e-05
  4.54327892e-06]
[ 4.20821351e-07 -2.07338076e-07 -3.50257223e-20  6.76833000e-03
 -5.25099395e-08  1.16234260e-05 -1.22777361e-04 -5.17474859e-07
 -5.17441663e-07  4.44675684e-02  4.44675907e-02  4.03118096e-02
  4.03118171e-02 -5.17492026e-07 -5.17373792e-07  4.91365232e-03
  4.91365185e-03  3.76949296e-03  3.76949203e-03  1.99058629e-03
  2.02327175e-03  1.61748752e-01  1.84735807e-03  4.86506906e-04
  4.86504607e-04  1.42358989e-03  1.42371538e-03  3.36235613e-01
  9.90897999e-04  9.90897883e-04  6.14065793e-04  6.14054967e-04
  1.40946358e-04  4.27624560e-04 -1.37751522e-05 -1.37753605e-05
  4.54911788e-06]
[ 4.53240887e-07  5.67074494e-08 -4.41744226e-19  6.96507562e-03
 -7.40534176e-08  1.83573102e-05 -1.20886660e-04 -4.69661359e-07
 -4.69634983e-07  2.77644712e-02  2.77644973e-02  2.49977484e-02
  2.49977503e-02 -4.69690292e-07 -4.69558586e-07  4.33309656e-03
  4.33309609e-03  3.76163283e-03  3.76163260e-03  1.90406258e-03
  1.93743058e-03  1.93454102e-01  1.83419057e-03  4.92956373e-04
  4.92956606e-04  1.38937042e-03  1.38949638e-03  3.42837453e-01
  9.22294566e-04  9.22294916e-04  6.46609871e-04  6.46601955e-04
  4.68828599e-04  6.33794989e-04 -2.00363793e-05 -2.00366158e-05
  5.02698276e-06]
[ 7.31622208e-07  3.72018292e-08  1.55153099e-18  8.51177890e-03
 -2.00285406e-08  4.40906333e-05 -1.23134931e-04 -1.15039143e-07
 -1.15066427e-07  1.75102218e-03  1.75103627e-03  4.03137092e-04
  4.03133803e-04 -1.15031753e-07 -1.14949103e-07  3.40374513e-03
  3.40374443e-03  5.27454959e-03  5.27454866e-03  1.99628854e-03
  2.04300624e-03  5.79861887e-02  3.04352911e-03  5.34563384e-04
  5.34564722e-04  1.49118330e-03  1.49134803e-03  4.00553167e-01
  1.10745849e-03  1.10745465e-03  8.02530092e-04  8.02516297e-04
  2.91082892e-04  2.27897486e-04 -3.51678391e-05 -3.51680319e-05
  7.35510139e-06]
[ 7.01684939e-07  5.53258985e-08  1.13287482e-18  8.50838702e-03
 -2.90397608e-08  4.24556893e-05 -1.42174802e-04 -1.31998718e-07
 -1.32015543e-07  6.41663373e-03  6.41664490e-03  4.87124175e-03
  4.87123942e-03 -1.31999741e-07 -1.31902766e-07  3.64774349e-03
  3.64774303e-03  5.14653930e-03  5.14653884e-03  2.00541364e-03
  2.05118349e-03  8.81208777e-02  2.09470838e-03  5.26792719e-04
  5.26791788e-04  1.46667112e-03  1.46683306e-03  4.04883295e-01
  1.08100334e-03  1.08100288e-03  7.84192933e-04  7.84175354e-04
  3.08746996e-04  2.85925518e-04 -3.36111734e-05 -3.36113881e-05
  7.29574958e-06]
[ 6.50955542e-07  3.00554490e-07  5.62839331e-19  8.00095592e-03
 -5.36301386e-08  5.06819597e-05 -1.23671227e-04 -4.46437980e-08
 -4.46539161e-08  1.61714654e-03  1.61715678e-03  5.38083375e-04
  5.38078428e-04 -4.46510739e-08 -4.45484147e-08  3.54266446e-03
  3.54266400e-03  4.69414890e-03  4.69414797e-03  5.63579286e-03
  5.67760924e-03  1.26339108e-01  1.97644089e-03  5.20042318e-04
  5.20040456e-04  1.41812174e-03  1.41827017e-03  3.79835963e-01
  9.94324684e-04  9.94322239e-04  7.84166332e-04  7.84156960e-04
  1.41596887e-03  1.37544493e-03 -2.94375241e-05 -2.94377587e-05
  7.58777469e-06]
[ 4.78449465e-07  1.21045389e-07 -1.54201976e-19  6.87797833e-03
 -7.10815300e-08  1.97753434e-05 -1.01990969e-04 -4.55428562e-07
 -4.55410714e-07  2.05191076e-02  2.05191169e-02  1.82573795e-02
  1.82573814e-02 -4.55450277e-07 -4.55331133e-07  3.99617339e-03
  3.99617339e-03  3.80606484e-03  3.80606391e-03  1.87014323e-03
  1.90380542e-03  1.72483608e-01  1.80884509e-03  4.99919173e-04
  4.99916321e-04  1.38609903e-03  1.38622802e-03  3.33439916e-01
  9.23240092e-04  9.23241605e-04  6.67578191e-04  6.67568529e-04
  5.35713392e-04  6.44308864e-04 -2.19679405e-05 -2.19681569e-05
  4.99448242e-06]
[ 3.82732878e-07  6.49920821e-07 -7.21297151e-19  5.57102170e-03
 -1.01665364e-07  6.20557985e-05 -5.15036518e-05  1.08236236e-07
  1.08276367e-07  1.83405746e-02  1.83405876e-02  1.61500778e-02
  1.61500778e-02  1.08229870e-07  1.08336167e-07  4.28485731e-03
  4.28485638e-03  2.94476352e-03  2.94476305e-03  1.81827638e-02
  1.82077028e-02  2.02859357e-01  1.54100719e-03  4.81722353e-04
  4.81718685e-04  1.30459736e-03  1.30468956e-03  2.66038626e-01
  8.06032331e-04  8.06036987e-04  7.06173480e-04  7.06170453e-04
  4.61502327e-03  4.75927442e-03 -1.41589101e-06 -1.41612350e-06
  7.23791027e-06]
